16 300
PROPN -0.16396137 0.16634013 -0.177798 0.542699 0.27874961 -0.039902594 0.3301793 -0.20565619 -0.30094445 0.048707474 0.1366163 -0.02348171 -0.22366878 -0.08239041 0.23759821 0.4306485 -0.030020338 0.06421682 0.06809562 -0.015462057 -0.2327533 0.023467707 -0.0122039225 -0.13424127 -0.0012086361 0.015410429 -0.1254679 0.029121157 0.028260522 -0.033106264 0.032082554 0.12482125 0.05332641 -0.028802143 -0.06983722 -0.06092169 -0.0017570803 -0.014920839 -0.13863856 -0.032986585 -0.030061841 -0.08549274 -0.11565649 0.14758053 -0.015017225 0.009124405 -0.08613874 -0.13365701 -0.0028269584 -0.033613283 0.052091744 0.0017513034 0.003778993 0.030613843 -0.031507414 0.034874532 0.08435396 0.030544203 0.032536995 0.004303674 -0.016856013 0.020957971 0.01194499 0.010355869 -0.036600094 -0.04740584 -0.009657744 0.12145093 -0.028619047 -0.010050685 0.05485998 -0.06270254 -0.10719569 0.08998134 -0.048633274 0.01963464 0.09175204 -0.078492366 -0.024173062 -0.015348973 -0.038331527 -0.05797117 -0.008160045 -0.055339757 0.08903262 0.0404874 0.0811382 0.10843901 0.02856649 -0.0405102 -0.060866196 -0.016882334 -0.025651826 -0.07072071 -0.01117057 0.08722332 0.027515352 0.0050463993 -0.0073145027 -0.07157174 0.03631 0.029715745 0.00022220999 0.056343038 -0.009164873 0.0238118 -0.013730603 -0.0047604707 -0.04570558 -0.052660424 -0.051540513 -0.005856111 0.047117654 0.1141732 0.10356982 0.019597901 -0.09068419 -0.081810474 -0.18484674 0.03410696 -0.011179054 0.18460076 0.07068998 -0.052458968 -0.001991269 -0.039456032 0.015405613 -0.12834336 -0.060529847 0.08722912 -0.009405249 0.0075444398 -0.009353017 -0.085478164 0.09179452 0.07909531 0.026933232 -0.0095610665 0.02073689 -0.018101504 -0.022978133 -0.01051808 0.032631285 0.034835126 0.010394054 0.045203578 -0.011075286 -0.14082414 0.06460934 0.02828653 0.020019619 0.08364384 0.04756833 0.07446566 0.020763796 -0.044532906 0.01864459 0.0697439 0.028965617 0.15227439 0.03259768 0.040796682 -0.038465787 -0.0037507347 -0.03638058 -0.090885974 -0.0035527174 -0.05503529 0.03031166 0.04612676 -0.041325588 -0.009370385 0.13260654 -0.05733512 -0.09757583 0.11690835 -0.08904504 0.10400107 0.098895915 -0.032083493 -0.06686588 -0.012193518 0.12322704 0.0077503566 -0.07167813 0.03388227 -0.064368516 -0.009706234 -0.0048880484 0.0016392191 0.029833298 -0.0045033884 -0.0018318299 0.01366459 -0.06553072 0.13663736 0.020457488 -0.023218168 0.082197376 0.10522386 -0.0029612551 0.007374061 0.03337239 0.032104347 0.0025778392 -0.024340471 0.010613342 -0.001566599 -0.07918289 0.01835612 -0.04839198 -0.033251576 -0.010709857 -0.027400915 0.007628476 -0.023539068 -0.022523586 0.0051080687 -0.018180134 0.019325525 -0.017031956 0.020685133 0.04091685 -0.009516865 0.036319688 -0.121745385 -0.0023669743 -0.047073938 -0.009770324 -0.007030847 -0.0071947197 -0.015485343 0.012481979 0.01315769 0.017799111 -0.015139719 -0.0017057896 0.0028899868 -0.0029734124 0.0060030795 -0.0075051705 -0.024721682 -0.011863182 0.055954695 -0.0263885 -0.06430568 0.0009517983 9.245773e-05 0.024233753 0.028672196 -0.002071408 0.04774576 0.013312089 -0.013276678 0.012986659 0.016437495 0.06916609 0.014991662 0.009802352 -0.004351365 0.0010592873 0.0005986514 0.012315448 0.0038023568 -0.08350466 0.0040420466 -0.009496543 -0.026001688 0.025212668 -0.011022842 -0.091642536 0.0524744 0.0025312405 0.06544804 0.054014444 0.001620217 0.04315295 0.0005680409 0.033129144 -0.05922003 0.062350117 0.020107597 -0.076804645 -0.15635133 -0.090518504 0.06883322 0.029614454 -0.18541831 -0.0212396 -0.043918457 -0.017213056 0.075807795 -0.03074617 -0.0018655529 0.006266932 0.01701233 0.038058404 -0.015866816 0.005575024 -0.0077985297
PUNCT -0.2504044 0.23217188 -0.2520239 0.800238 0.51107323 -0.09220585 0.65986085 -0.3692811 -0.4976625 0.07993026 0.21175143 -0.038927905 -0.35812065 -0.24604474 0.35540718 0.8744144 -0.07296989 0.116920866 0.11819943 -0.0073453914 -0.5303386 0.057229638 -0.018036729 -0.2634683 -0.02026391 0.019438213 -0.16508399 0.031446338 0.06271069 -0.081546284 0.031995606 0.12063491 0.08807164 -0.07635275 -0.005005908 -0.123597175 0.0025488227 0.008988736 -0.11870684 -0.03489528 -0.060617343 -0.08776143 -0.14192858 0.17185622 0.020569291 0.045178924 -0.15606387 -0.18641576 0.007172322 -0.07115903 0.1561968 0.015699506 0.03613435 0.027546976 -0.015210497 -0.033523675 0.01590757 0.02316007 0.11446378 0.099684455 -0.057260502 -0.03091514 0.025599413 0.050474238 -0.13882688 0.0026698604 -0.0014605797 0.18755664 0.073250085 -0.023369996 0.12869692 -0.092569456 -0.109691575 0.11248504 -0.09787499 0.068610616 0.12687145 -0.101141825 -0.035230346 -0.011427914 -0.035405166 -0.03841597 -0.043021925 -0.044881117 0.15096182 0.070156015 0.08079766 0.17963053 0.04964482 0.0013887365 -0.034149874 0.015089595 -0.014328665 -0.053124655 -0.005373458 0.025038928 -0.025183866 0.009546726 -0.006963537 0.015773961 0.06752916 -0.010931742 0.009486609 -0.023821319 -0.044553496 -0.009997887 0.017709117 0.08140402 -0.007413851 -0.032784402 -0.017173218 -0.021588592 -0.006751703 0.0735585 0.015346163 -0.04092928 -0.019042866 -0.047110133 0.018289655 -0.07501943 -0.043280073 -0.039007906 -0.09916152 -0.12462383 -0.091892324 0.018937886 -0.011735973 0.028103162 0.09026633 -0.017496662 -0.022905292 -0.020282704 0.0041880305 -0.038424153 0.025476016 0.065954626 -0.021703595 0.006537776 -0.1740733 -0.045879252 -0.12439467 -0.016143879 0.12163878 0.050421614 0.08217325 -0.023761103 0.13452478 -0.01671637 0.005915117 0.0012215043 0.09464329 0.058347277 0.034031235 0.0712804 0.017977376 -0.02490776 0.02040932 0.024125604 -0.001291234 0.060531177 -0.031499613 -0.033652928 -0.008060624 0.010953299 -0.014085022 0.06604793 0.04521062 0.009423294 0.027357545 0.002602408 0.05414733 0.064105965 -0.028569097 0.010190557 0.006652256 -0.0134703815 0.04615669 -0.021642774 -0.03364764 -0.020863043 0.029044496 -0.005055745 -0.047192313 -0.014104018 -0.043799646 -0.0777251 0.120018035 -0.10853103 0.06609686 0.06903365 -0.10811074 0.15787746 0.06644817 -0.047079865 -0.0023415922 -0.17936327 0.007970908 0.019204114 -0.18887943 -0.03913517 0.12742184 -0.07009168 0.068374746 -0.08289909 -0.045102 -0.04427172 -0.03365221 -0.06018517 -0.12508395 -0.09474786 0.027691176 -0.0258879 0.03265281 0.041648455 -0.0013522295 -0.083019115 -0.06724401 -0.09895717 -0.044771727 0.025861282 -0.05033916 0.19013849 0.091501966 -0.0021310016 0.14323811 -0.36102074 0.050558783 -0.09912513 -0.07885995 0.03002617 -0.036672033 -0.1317475 -0.076481596 -0.04564363 -0.06430819 -0.030191083 -0.014503408 0.010713105 -0.003236512 0.011486081 0.004426295 0.0015307857 -0.017747395 0.027907554 -0.032896418 -0.06890907 0.01723192 -0.016141087 0.05570185 0.037426148 -0.03186975 0.059790216 0.02528097 -0.028692365 0.008038077 -0.013440896 0.0445805 0.013355117 -0.0033367472 0.005711382 0.011116081 -0.008049348 -0.009564053 0.042805076 -0.25759128 0.007829084 -0.016252 -0.071456425 0.038542602 -0.02672447 -0.19617774 0.08583721 -0.045210194 0.08878519 0.0925932 0.00078273326 0.07654033 -0.017578594 0.056013886 -0.082223885 0.059801236 0.033020567 -0.09288777 -0.17199923 -0.11422701 0.06829757 0.029790798 -0.22284222 -0.022780908 -0.115286395 -0.09868535 0.21516916 -4.732435e-05 0.16354276 -0.018072993 0.048303958 0.048976377 -0.030471917 -0.003989836 -0.040589634
NOUN 0.02253782 -0.057066813 0.039593104 -0.058620334 0.044789318 0.002082158 0.08605829 -0.054542016 -0.039064363 0.017569952 -0.005922014 0.016641526 0.03858894 -0.07013557 -0.084031336 0.05548128 -0.017862882 -0.024274588 -0.044119842 -0.032088652 -0.009113678 -0.0039075105 -0.013805132 0.019049786 0.009439703 -0.020707745 -0.023158008 -0.0050778612 0.024393689 0.010198369 0.01742419 -0.035759266 0.06567092 -0.06892702 0.06855875 -0.10072953 0.0024116123 0.010104609 -0.0031413531 -0.03571475 -0.02560507 -0.023359025 -0.10098102 0.09488649 0.04135675 0.013512573 -0.15001196 -0.14245088 0.018210856 -0.029738618 0.05897924 -0.009430576 0.012906954 0.038434524 -0.009555549 0.0005768399 0.013531491 -0.02106883 -0.011371939 0.02701263 -0.0065856217 -0.0054697166 -0.04714198 0.021233452 -0.053956475 -8.537197e-05 0.005984922 0.07724215 0.04490536 -0.01560145 0.06274548 -0.024768924 -0.03637978 0.0373687 -0.058998015 0.06684494 0.07443545 -0.038665 0.018549155 -0.000392357 -0.014801892 -0.018617291 -0.037978206 -0.020950967 0.12377183 0.0680862 0.046208557 0.11219254 0.061678264 0.011586046 -0.023695258 0.034388635 0.008207694 -0.023502935 -0.0069846828 -0.009241285 -0.024167912 0.01096956 -0.009971706 0.0668139 0.043898955 -0.0009801007 0.022866664 -0.03208557 -0.044140454 -0.022127151 0.04050887 0.067945726 0.022914046 -0.03186484 0.018039672 -0.026965655 -0.027558863 0.05071976 0.033889327 -0.024531238 0.024317259 -0.01440854 0.096371695 -0.076075085 -0.038313955 -0.039114084 -0.07472067 -0.075088136 -0.08272301 0.016107706 0.024122858 0.0071598296 0.09258239 -0.007756865 0.026622575 -0.01675716 -0.019928282 -0.12762304 0.03879426 -0.035664696 0.044548456 -0.009594596 0.0064347894 0.039862182 0.044248268 0.0015706159 -0.03875212 0.014947758 -0.020580687 0.044622973 -0.09061926 -0.07901656 0.09708255 0.05987269 -0.18798266 0.021626143 0.11083405 0.12046537 0.038046427 -0.20591237 -0.17854539 0.20710514 -0.035362907 0.1693813 0.054876424 0.031123972 0.033141043 0.04687668 0.015828425 -0.17210883 0.01715894 -0.10988774 0.04149985 0.006535225 0.020091 0.01582299 0.060081825 -0.00833201 -0.0259296 0.018129442 -0.041623626 0.012442258 0.047563385 -0.025376298 -0.10676854 0.003556815 0.24123816 0.056647766 -0.024690997 0.061948527 -0.12425454 0.04712844 -0.050225295 -0.038077872 0.06664182 -0.039677404 -0.04415721 0.090036765 -0.12893267 0.2741968 -0.016998412 -0.04349629 0.28204653 0.2064217 -0.16337152 0.11136875 -0.09352863 0.15430321 0.037788536 0.121890396 0.12085762 0.096600644 -0.057285417 0.20631628 -0.12777631 -0.16047645 -0.09090602 -0.04654744 -0.036649663 -0.03232662 -0.06569373 -0.0003397122 -0.030168207 0.052765608 0.0016677298 -0.03171701 -0.00083307264 0.032297447 -0.0017540387 0.0030857488 0.008498248 -0.02734862 0.016707825 -0.08194459 0.032520916 0.12328045 0.12966722 0.10164463 0.19199586 -0.08118559 0.28559792 0.1980331 -0.08009832 0.008407575 0.014402658 0.21343921 -0.030454375 -0.21759883 -0.01651413 0.095441364 -0.023089059 -0.17031342 0.23535873 0.21668358 -0.1012197 0.26231635 0.14746994 -0.16633283 0.1366472 -0.16793016 -0.16095378 -0.036020055 -0.016955176 0.052484978 0.0141620375 0.005671175 -0.08683506 0.1162597 -0.47455198 -0.00018255814 -0.013637494 -0.08790375 0.05879738 -0.082810864 -0.31109622 0.102772474 -0.08221122 0.10566912 0.117175266 0.009743124 0.06790857 -0.03825637 0.052298438 -0.04652989 0.074543685 0.03799578 -0.047749486 -0.14038351 -0.08546179 0.10950437 0.07249229 -0.22982003 -0.018706871 -0.024497181 -0.016363306 0.10770431 -0.008356535 0.15630452 -0.036698703 0.044405863 0.017966878 0.028593915 0.030384557 0.0037615097
ADP 0.20550372 -0.24305744 0.23012908 -0.68384504 -0.31185886 0.042549584 -0.34969428 0.22007084 0.09775822 0.025268227 -0.07261379 -0.0060245288 0.21607317 -0.009965348 -0.21057482 -0.24636912 0.027101118 -0.091692924 -0.076775365 0.020391071 0.2854178 -0.037260868 0.045399964 0.18258779 0.06129581 0.10597931 0.04671518 -0.042574298 0.006320894 -0.07425078 0.005483604 0.13152489 0.06194322 -0.037080992 0.11682808 -0.13481314 -0.068490826 0.025207918 -0.05232665 0.00062629534 -0.039886776 -0.05046847 -0.058099035 0.05336595 0.03129541 0.040000536 -0.09552842 -0.07671999 -0.005940173 -0.05974955 0.08428546 0.038589012 0.105152644 -0.006988969 0.037763637 -0.11932663 -0.1146859 -0.0362907 0.1108833 0.10776907 -0.027886372 -0.038410313 0.008596345 0.050152805 -0.09412045 0.077423684 0.04985861 0.01573849 0.12312529 0.000970299 0.01559885 -0.009631261 -0.044442277 0.03944024 -0.09612303 0.13986143 0.08854333 -0.04655281 -0.08874136 -0.026727926 -0.07607458 -0.038425885 -0.058586244 -0.0064551746 0.29805636 0.13438326 -0.060754877 0.2545693 0.24370167 0.19617866 -0.20623414 -0.09492816 -0.18426076 -0.14591965 0.04052713 0.27612683 0.0057354267 -2.5925227e-05 0.016298568 -0.025755404 -0.04804957 0.054356944 -0.0703445 0.13437751 -0.009432772 0.06523529 -0.040761847 -0.2843626 0.0024235998 -0.010927594 0.02321004 0.10523734 -0.014659271 0.005923782 0.0837819 0.05408281 -0.03422169 -0.014330237 -0.062626466 0.09989119 0.033999924 -0.012192019 0.060129136 0.057323277 -0.024147162 0.011938064 0.029723914 0.027071368 -0.011827831 0.04723703 0.032644343 -0.008829275 -0.075320356 -0.1156806 0.045315497 -0.10808753 0.1527858 -0.038387556 0.45715922 0.19343278 0.16101119 -0.0097285295 -0.17169765 -0.027724376 -0.06354124 0.025944736 -0.23704337 -0.19657819 0.17323008 0.09109967 -0.34737948 0.010707966 0.089499526 0.14622876 0.060338892 -0.2900451 -0.16680686 0.1921507 -0.024945352 0.18148603 0.14828718 0.1094353 0.032209497 0.106011264 -0.02695824 -0.33858237 -0.041559126 -0.17098904 0.046862043 0.009979926 -0.07413211 -0.076426156 -0.090340935 0.070234895 0.07494898 -0.034882966 0.050731592 -0.07722228 -0.011428634 0.018711656 -0.019805396 -0.052853446 0.05659541 0.004473272 0.020400623 0.045869626 -0.084011875 0.0611722 -0.022168742 -0.05257096 0.0783694 -0.0580501 -0.05407473 0.09351337 -0.037894942 0.14308116 -0.08794092 0.0022057337 0.14535306 0.025207618 -0.1774657 0.11851535 -0.11717289 0.1520007 -0.010359289 0.13896324 0.09864588 0.08188528 0.05147742 0.20713364 -0.076939106 -0.1542856 -0.10725558 -0.020991331 -0.068155915 0.079889365 0.0023371445 0.03849927 0.026262805 0.022945702 -0.0016401357 -0.08922438 -0.06247869 0.0452676 -0.1164135 0.30162722 -0.029187022 0.037065443 0.03561536 -0.08107765 0.019254759 0.18346623 0.13182975 0.098714754 0.17611483 -0.06646354 0.11148155 0.06890885 -0.024392055 0.0068163937 0.039119024 0.15234958 -0.013347435 -0.19659741 0.031972848 0.0968814 -0.0102814855 -0.06757616 0.13996755 0.13473953 -0.031810395 0.14095572 0.1350112 -0.17658818 0.1592987 -0.2069855 -0.3271186 -0.07922242 -0.04853388 0.022089222 0.06310566 0.025066793 -0.16957991 0.11531211 -0.39317775 -0.019371223 -0.04734943 -0.059225313 -0.03491281 -0.05738304 -0.007237504 -0.040502973 -0.09282446 -0.0691297 0.010368525 -0.008479805 -0.03493164 -0.015698193 -0.02659345 0.08532983 -0.08115157 -0.013156095 0.10693443 0.19150332 -0.011328482 0.011557304 0.028648887 0.036695413 0.003925483 0.062213153 0.056711484 -0.11127025 0.023695888 0.020680768 -0.03527865 -0.009980353 -0.052755702 0.044742156 0.015216752 0.04474209
ADJ 0.21437922 -0.19561626 0.21482037 -0.6738113 -0.28044897 0.021920046 -0.33869955 0.18864308 0.22416261 -0.032885555 -0.09054052 -0.005801942 0.17971738 0.10452659 -0.18099046 -0.37475222 0.0423796 -0.06285072 -0.05601103 0.010724432 0.2770139 -0.037858818 0.032256342 0.15344603 0.04257058 0.07154079 0.064703345 -0.04621955 -0.036798146 -0.0171558 -0.011065965 0.069989584 0.0072952653 0.00012758837 0.08570101 -0.036725964 -0.07914523 0.03132366 -0.013107957 -0.01638768 -0.0027395175 0.012704281 0.0044675013 -0.05797737 0.0070793508 0.007084812 0.014416582 -0.008637654 -0.04342831 0.005647391 0.0007833716 0.023533408 0.05080477 -0.063891895 0.052922785 -0.100175604 -0.14397795 0.0021953539 0.101601824 0.11008874 -0.006442933 -0.04115177 0.062077213 0.00056183076 -0.133882 0.100680284 0.02382366 0.03603825 0.19614954 -0.0032067613 0.05852746 -0.023978457 -0.031645685 0.029501641 -0.02384193 0.06483193 -0.02189013 0.007865391 -0.07179107 -0.0024591219 -0.023105627 0.003190744 0.03946954 0.00061090075 0.06890827 0.04971854 -0.09100457 0.085175924 0.13454467 0.16881318 -0.12896548 -0.08528589 -0.1532536 -0.056231406 0.030307133 0.24272795 0.039153416 -0.009670998 -0.0053719664 -0.05096481 -0.10348437 0.06595273 -0.052013498 0.10129877 0.038457446 0.0334681 -0.0680343 -0.22848666 -0.0014326823 0.013089614 -0.0042835744 0.12016786 0.07075427 0.0200896 0.20398083 0.17122836 -0.037093576 -0.00038340568 -0.25694466 0.24093255 0.08389954 0.1295132 0.22055022 0.1730105 0.101556554 -0.057976548 0.019597465 -0.13506533 -0.17308795 0.1257962 0.020367557 0.007856233 -0.020163773 -0.124080084 0.09872311 -0.11252177 0.08704853 -0.03707963 0.355202 0.09656113 0.2086401 0.010093024 -0.1942114 -0.07841187 -0.10602302 0.041152976 -0.21609144 -0.10450214 0.09320865 0.04840923 -0.23282199 -0.0326853 0.03130465 0.0115430355 0.01835543 -0.09892596 -0.10564697 0.07418771 -0.009234282 0.04609145 0.1172965 0.1138639 -0.008560868 0.01957269 -0.0051260786 -0.26806334 -0.057593882 -0.11795731 -0.023291202 0.022971435 -0.07204034 -0.11170854 0.089026585 0.0019574163 -0.033960767 0.040807903 -0.12799016 0.077969775 0.09015202 0.05375165 -0.09991144 -0.009620549 0.16309309 0.04893125 0.07573998 0.120436355 -0.17916973 0.16303441 -0.070089914 -0.087100975 0.16606207 -0.20069334 -0.09317161 0.08298309 -0.045315325 0.32873186 -0.047469173 -0.03545871 0.34865427 0.11099388 -0.27353725 0.13852714 -0.14604297 0.21405315 0.10832629 0.1605971 0.114829324 0.14131795 0.15936254 0.36343178 -0.1810756 -0.080620326 -0.13410167 -0.12336827 -0.037110005 0.151803 0.112534806 0.19817093 0.06508217 -0.0073488452 0.09262187 -0.3946362 -0.15851465 0.012544279 -0.23130342 0.62268114 -0.10016197 0.14580475 0.14946453 -0.079926595 0.09261368 0.31037468 0.23942685 0.16662586 0.2384245 0.014118975 0.23726352 0.14604719 -0.041970573 0.03415822 0.0035216499 0.16549332 0.008574026 -0.18066421 0.010847228 0.14202295 -0.03964294 -0.13568167 0.12622501 0.105767794 -0.02258178 0.15349261 0.09390508 -0.10368346 0.10908986 -0.0818185 -0.24391077 -0.045810618 -0.055828374 0.034539312 -0.04515825 -0.0344283 0.032267574 -0.03615876 0.2357892 -0.026114175 0.045078214 0.063274816 -0.0385345 0.0005382959 0.19695762 -0.11641188 0.001495727 -0.0773301 -0.033511113 -0.00086260686 -0.050710328 -0.016468465 -0.023957321 0.060453016 -0.050757397 -0.01614116 0.056606453 0.12819995 0.06958037 -0.075340234 -0.032312144 0.14752719 0.020414904 0.06544219 0.033357397 -0.1310817 0.02514762 -0.016350565 -0.021978531 -0.033318687 -0.044474125 0.021639975 0.0029972303 0.044531517
NUM -0.74837774 0.66675335 -0.7246903 2.2595968 1.3272047 -0.1968209 1.6550419 -0.8922048 -1.617635 0.27026784 0.65762836 -0.08045633 -1.0418514 -0.6824645 1.0857843 2.4265854 -0.24598897 0.33039284 0.3920214 0.05844154 -1.4508122 0.19700329 -0.057213504 -0.7310856 -0.15515868 -0.026068458 -0.35412452 0.097640865 0.16612928 -0.20932123 0.05967203 0.19337802 0.09557318 -0.07626724 -0.2953754 -0.08723204 0.16946653 -0.07041405 -0.2826879 0.0047640814 -0.10169728 -0.19403386 -0.123755574 0.35742062 -0.061710093 0.05493615 -0.109795816 -0.08104789 0.15089059 -0.08806467 0.12679125 -0.05295797 -0.09921919 0.21991695 -0.17091332 0.22583282 0.4684797 -0.01758984 -0.25475216 -0.33531293 -0.030445619 0.078016184 -0.19194485 0.11458908 0.28354058 -0.23542276 -0.024985876 -0.08359837 -0.6756321 -0.030774208 -0.19524935 0.02863866 -0.068548806 0.09618503 -0.08965097 -0.047691576 0.24973102 -0.1916921 0.03819338 -0.03431948 -0.08384522 -0.09681816 -0.21574095 -0.024336042 0.1655745 0.020854887 0.27527204 0.08661126 -0.14606003 -0.35757813 0.08875884 0.13396536 0.19970699 -0.09435356 -0.09639793 -0.32107735 -0.15849446 0.048071258 0.023267066 0.057380594 0.3508554 -0.12371306 0.057052378 -0.030780315 -0.19648501 -0.040785514 0.09988525 0.46174237 -0.05433371 -0.10789181 -0.040775757 -0.28367454 -0.18837154 0.0030856952 -0.59274906 -0.5868483 0.085533574 -0.026422929 0.78342927 -0.72424465 -0.18470755 -0.4094813 -0.5972341 -0.4855492 -0.36214432 0.18384518 -0.04990143 0.40426752 0.47168723 -0.27624917 -0.074160166 -0.0630229 -0.045714755 0.12644652 -0.10955269 0.21640849 -0.07443566 0.05603652 -0.42576656 -0.12442342 -0.4695451 -0.10141102 0.37864834 0.17033322 0.28785944 -0.117124565 0.40506148 -0.14065926 0.057827294 -0.033579085 0.2888655 0.19844814 0.026204715 0.26730028 0.03963419 -0.12686335 0.20201614 -0.007678504 0.015758911 0.20154507 -0.0849021 -0.13040166 0.06271671 0.13398612 -0.11185681 0.12281396 0.13236462 0.00043153105 0.14468625 0.03602801 0.062763885 0.12561868 -0.23040965 0.09147542 0.06263324 -0.0032542578 0.28902894 -0.14324741 -0.11325006 -0.11644175 0.12992679 -0.16204067 -0.16633174 -0.15392923 -0.3456798 -0.05546199 0.04610392 -0.27620333 0.16987227 0.04579655 -0.13337786 0.34815696 0.1118582 -0.017233217 -0.07486312 -0.2157998 -0.05027806 0.021303263 -0.31684262 0.033323992 0.3603323 -0.15868129 0.23440991 -0.21127759 -0.25591218 -0.1634392 -0.107850745 -0.21584137 -0.43967748 -0.3548695 0.09033889 -0.1342621 0.13598356 0.19288579 -0.0029118357 -0.24139543 -0.23102419 -0.30738822 -0.13292512 0.11839227 -0.21096142 0.6264305 0.30769467 0.027889473 0.23567946 -0.81979513 0.06386412 -0.33871922 -0.24940315 -0.0040253038 -0.21036945 -0.3826855 -0.39009377 -0.22940986 -0.3657374 -0.14667499 -0.47728947 -0.31464198 0.07992326 0.011974026 0.04542601 -0.29663715 -0.074935734 0.42122766 -0.09944868 -0.5307006 0.10861515 0.29370275 -0.27514425 -0.12963314 0.17938629 -0.1597959 -0.14533699 0.05144221 0.0153692635 0.1039212 0.33250394 -0.053584706 0.10445714 -0.0674745 0.25829846 0.107174434 -0.296333 0.061327606 -0.47959036 -0.036251076 -0.21471603 -0.11659074 -0.021722343 0.12081255 -0.22867236 0.1133891 -0.08771359 0.021165287 0.117867686 -0.021378312 0.075217314 -0.0215491 -0.024114626 -0.03170774 0.14399366 0.040226307 -0.15055814 -0.3207015 -0.3258958 0.25205466 0.13107958 -0.59113866 -0.090077035 -0.2755484 -0.14479852 0.4620102 0.032835625 0.5528146 -0.053611062 0.1449544 -0.10897893 0.29640388 0.089310244 0.27280673
DET 0.2508304 -0.33440542 0.3192522 -0.9227401 -0.12893662 0.015500617 -0.09460784 0.11918895 0.057330497 0.02303861 -0.0628596 0.0022437347 0.16014886 -0.14360476 -0.20102565 -0.037763067 -0.017888011 -0.068854414 -0.07842159 0.014581854 0.13994597 -0.0151541475 0.048372634 0.118996456 0.037881423 0.048953127 0.060126383 -0.043940753 0.02410036 -0.055189423 0.0018604792 -0.01787014 0.026709571 -0.060658433 0.15208364 -0.09229662 -0.007189323 0.046189513 0.03659914 -0.00095475285 -0.030283192 0.012909314 -0.012809903 0.022489062 0.08053768 0.063159116 -0.11476876 -0.0374819 0.050429404 -0.033718906 0.096566655 -6.514049e-05 0.053529758 0.021885294 0.03612415 -0.090022184 -0.11419851 -0.06388465 -0.004123683 0.02039597 -0.030585928 -0.06375656 -0.07825973 0.06361778 -0.03505153 0.093957685 0.04156341 -0.07091065 0.09252063 0.0014565141 -0.009775519 0.037596233 0.06336473 -0.041267417 -0.07424019 0.1010961 0.0178817 0.002436303 -0.0073639294 -0.0064736777 0.011921317 0.036347117 -0.11043443 0.058586847 0.18806304 0.0870245 -0.040374942 0.13783894 0.10555228 0.094725214 -0.024908314 0.043128353 -0.030795444 -0.02433281 0.021846721 -0.033552248 -0.085719965 0.009418314 0.023094865 0.12498411 0.04072093 -0.0453931 -0.0043126033 -0.054688156 -0.06442334 -0.02202533 0.058648784 0.005132752 0.06244841 0.015496874 0.06788104 0.013900834 -0.10076356 -0.057395697 -0.10032024 -0.069914155 0.085773386 0.056677274 0.27850246 -0.0971 0.0028764463 -0.2641489 -0.12999527 -0.027732266 -0.11320835 0.05806703 0.01166294 0.1528269 0.13738337 -0.077646025 0.037885763 -0.043667916 -0.047013003 -0.070921645 -0.062464803 -0.13604191 0.06547123 -0.015848268 0.15113437 0.1497807 0.076727234 -0.018272568 -0.08463339 -0.019604957 -0.008094535 -0.0414445 -0.08340013 -0.0075509283 0.111681215 0.07646056 -0.31538162 -0.035455305 0.0958506 0.124837354 0.048855174 -0.27928758 -0.21776293 0.18162702 -0.06868223 0.09437332 0.074466415 0.022612363 0.08003784 0.11491855 0.029382005 -0.2786943 0.0036528686 -0.15393105 0.02843138 -0.038436916 0.015522838 -0.034358088 -0.09334467 0.11282592 0.11829497 -0.113037206 0.05110154 -0.13903795 -0.053487647 0.05963965 -0.05409422 -0.0060872934 0.112530805 0.077768505 0.09985792 0.05855439 -0.09966517 0.11650913 -0.05013023 -0.064616 0.11480031 -0.09484071 -0.04999253 0.11162589 -0.052092712 0.15478244 -0.10794058 0.0077085234 0.2709648 0.067750655 -0.2902235 0.17943844 -0.21174954 0.21450087 0.043845896 0.24469876 0.15178636 0.1610787 0.11246758 0.3450107 -0.110004686 -0.18824185 -0.15933025 -0.02487936 -0.09645331 0.07899213 0.009696787 0.06425287 0.042362865 0.015007438 0.039027948 -0.108956695 -0.0889461 0.054904345 -0.12649043 0.36863264 -0.011717926 0.07127182 0.05698967 -0.10680123 0.059423 0.27597088 0.21167436 0.118405916 0.24452159 -0.06403704 0.34350565 0.24857676 -0.0905112 -0.0013118872 0.05031976 0.40503147 -0.012841441 -0.46788868 0.035168733 0.29259333 -0.049199563 -0.28443354 0.34959373 0.31009436 -0.15430263 0.3503489 0.24976696 -0.2836628 0.24276005 -0.32935068 -0.5864872 -0.1007099 -0.114238225 0.0776123 0.0094604585 -0.011495367 -0.13483922 0.18740955 -0.41181406 -0.009302319 0.03252095 -0.06456361 -0.0006378562 -0.11572723 -0.121157944 -0.018587155 -0.1409643 -0.04407832 0.026525492 -0.00475974 -0.0046981573 -0.051878892 -0.007589425 0.0876473 -0.09450992 0.025509221 0.106653616 0.18946788 0.041295808 -0.04662231 -0.021374347 0.15262397 0.055896226 0.0819229 0.011209757 -0.09347756 0.077424265 0.15961707 -0.077703916 -0.006198402 -0.08006454 0.04397415 0.0014649677 0.014293961
VERB 0.3152095 -0.39699706 0.38894102 -1.2012416 -0.2938987 0.02074624 -0.3112326 0.25055394 0.12388654 0.027367033 -0.09318459 -0.04389772 0.17416964 -0.12422795 -0.1627991 -0.08900917 0.007141188 -0.08859115 -0.08431348 0.054440424 0.26173726 -0.029595481 0.117053345 0.15203749 0.020229464 0.05706351 0.13951461 -0.04646984 -0.021882476 -0.070228666 -0.0201445 0.011080491 -0.103074834 0.03860962 0.07714592 0.13210593 0.05446485 0.05426991 0.17214201 0.07227007 0.005539968 0.09487588 0.16855276 -0.1163759 0.054662265 0.085718304 0.09191069 0.21222982 0.08150403 0.0336503 0.018302169 -0.011277009 0.027036356 0.005860446 0.036986087 -0.050684333 -0.09253061 -0.058433834 -0.07951057 -0.09293778 -0.037673578 -0.05923147 -0.0708384 0.028195085 -0.023076328 0.10648615 0.046870366 -0.08137217 0.12671275 0.018579392 -0.04279892 0.042333007 0.066894576 -0.06322241 -0.06632311 0.061402258 -0.034299526 0.017917447 -0.05017772 -0.011231826 0.025041921 0.044065222 -0.12899189 0.06496798 0.1486325 0.03160794 -0.05394795 0.15538102 0.11293611 0.12712245 -0.04828628 0.0027462947 -0.076209016 -0.042047244 0.06302629 0.017031092 -0.05791056 0.012961879 0.046587516 0.06283506 0.024057418 -0.059710957 -0.04090601 -0.029532857 -0.045349147 0.011874816 0.027926404 -0.092220314 0.03022966 0.03374499 0.06541107 0.08087842 -0.09301879 -0.0699971 -0.062137462 -7.469664e-05 0.012553105 0.026005425 0.08759106 0.026022566 0.05053153 -0.20149408 -0.0020892129 0.029139252 -0.03576757 0.018753143 -0.019680424 0.06539554 0.029331004 -0.0467115 0.027800472 -0.044285107 -0.040837184 -0.0013649379 -0.0624433 -0.08798429 0.08017433 -0.014901861 0.22149047 0.18370171 0.12930451 -0.013980698 -0.1105772 -0.023139494 -0.01351971 -0.07055682 -0.06817734 0.007502037 0.07293689 0.06251047 -0.22492665 -0.04863071 0.035414513 0.046477474 0.04362219 -0.12875699 -0.1122235 0.038804054 -0.03307939 -0.015881268 0.06071788 0.026364557 0.011969754 0.0762431 0.0074408296 -0.27163443 -0.038568586 -0.12679283 0.0004866058 -0.051452324 -0.04101313 -0.08120021 -0.031230303 0.11726987 0.11163194 -0.08496497 -0.07515837 -0.06974032 0.017881988 0.12654054 -0.10088745 0.01362911 0.08310113 0.13103884 0.1720874 0.09864661 -0.121191114 0.2015396 -0.06534033 -0.06227075 0.19649857 -0.20117487 -0.059093535 0.11883989 -0.023473175 0.20470805 -0.12020722 0.036351845 0.26857945 -0.02163645 -0.3795826 0.18332867 -0.23812065 0.29548466 0.09082076 0.25744408 0.137257 0.18744598 0.26647148 0.5320742 -0.1919754 -0.185528 -0.2555 -0.12681371 -0.11151776 0.22954153 0.16863419 0.2482344 0.12887152 -0.061783686 0.13233389 -0.4292998 -0.21386008 0.028085757 -0.30184162 0.9318454 -0.08414264 0.23550867 0.1603335 -0.09681189 0.14456905 0.5239176 0.40118915 0.21869774 0.3804369 0.019718288 0.560074 0.41520894 -0.084846854 0.015675033 0.029375298 0.56511503 0.008415138 -0.63547856 0.034047157 0.43081257 -0.0811509 -0.4408259 0.46809128 0.38174713 -0.21595898 0.46832818 0.3154079 -0.31103688 0.26772377 -0.35908246 -0.70832026 -0.073271126 -0.18896697 0.047533914 0.018037232 -0.028980883 -0.090609424 0.1742747 -0.119345635 -0.00087433314 0.04116791 -0.045264702 -0.05514227 -0.049907446 0.04281281 -0.05366297 -0.13964051 -0.07454998 0.021662239 -0.037783124 0.033564452 -0.018528856 0.011324383 0.06489361 -0.13293731 0.043372706 0.031778976 0.12605499 -0.07986312 -0.09635686 -0.14060295 0.13086796 0.104145 0.05867428 -0.048475806 -0.12172851 0.13250434 0.13402785 -0.05600016 -0.027329022 -0.16413409 0.07548794 -0.023566168 0.05775087
ADV 0.18546788 -0.154104 0.1632499 -0.5157313 -0.30235964 0.021207487 -0.34667343 0.18833993 0.39399672 -0.070985906 -0.16734661 -0.0022161398 0.25006482 0.15658577 -0.27666274 -0.53939086 0.060312532 -0.06732262 -0.07578534 -0.013043664 0.2647534 -0.038850673 0.007736447 0.14388745 0.073081024 0.058050703 0.05289383 -0.038028456 -0.043913048 0.01784957 -0.00499217 0.038784686 0.0123601435 -0.011543105 0.18494494 -0.050120585 -0.10342731 0.050145634 0.07649003 -0.020153318 0.022777697 0.07529509 0.039529566 -0.15115367 0.047062073 -0.009603059 0.010782761 -0.009195609 -0.07852435 0.011826454 0.019067645 0.04126791 0.08570665 -0.11455127 0.091691695 -0.16151154 -0.26587522 0.008196184 0.20384106 0.24057634 -0.019782802 -0.07980936 0.11810837 -0.029020395 -0.19373478 0.14278558 0.010615511 0.07191451 0.3769838 0.008308486 0.12968214 -0.03002795 0.021059508 -0.021869138 0.018783407 0.04561801 -0.1016769 0.07976399 -0.021798698 0.01922954 0.047246415 0.06406931 0.08486737 0.020614253 -0.0894847 -0.014760164 -0.12689437 -0.03709377 0.07788543 0.1890931 -0.036531333 -0.05082803 -0.09583966 0.05216508 0.05186103 0.13499233 0.05258726 -0.02304757 -0.016918195 0.0027607123 -0.15146391 0.039992057 -0.028263139 -0.012531887 0.07133527 -0.0012470738 -0.03317933 -0.16809782 0.03877467 0.054807577 0.030394342 0.13884863 0.07618285 -0.010328007 0.26579523 0.26575238 -0.007625158 0.023156902 -0.31915691 0.32557487 0.09021605 0.12074629 0.25707018 0.22715221 0.15369679 -0.07391588 0.01038809 -0.1740072 -0.22574425 0.13354951 0.034575813 0.018514115 0.020212729 -0.107597545 0.0784337 -0.119490825 0.033777695 -0.024288896 0.17373726 0.05147646 0.23954508 0.05332462 -0.19814293 -0.094259985 -0.15057437 0.06504441 -0.22955789 0.045643363 0.0081795575 0.03155854 -0.20873891 -0.094371535 -0.008483316 -0.12886474 -0.014333377 0.04794389 -0.13720128 0.011758811 -0.01587865 -0.10428355 0.059603836 0.07085747 -0.030604359 -0.061089218 0.061771937 -0.10695123 -0.06634869 -0.028134894 -0.07973357 -0.028386567 -0.02639692 -0.07647147 0.16415837 -0.03676244 -0.05376833 0.015092425 -0.17568646 0.09175367 0.07856701 0.07246459 -0.10351571 0.08634311 0.14053892 0.10318867 0.16381367 0.06811946 -0.081629716 0.17090678 -0.0926729 -0.053777806 0.11152322 -0.20690559 -0.059604652 0.018106315 0.024032045 0.14188135 0.023455927 -0.016061792 0.1904156 0.005934302 -0.19121537 0.07012642 -0.1205172 0.11277522 0.14985219 0.09937497 0.060616445 0.118713714 0.2256747 0.24186853 -0.08984171 0.04680976 -0.096665695 -0.124043815 -0.0035299605 0.12938797 0.15104285 0.20908079 0.078833655 -0.064502835 0.13978596 -0.42243284 -0.18873839 -0.015996126 -0.21294154 0.65681416 -0.07436651 0.21754101 0.18339774 -0.03509677 0.14723192 0.3335782 0.28847668 0.1729206 0.26429546 0.08210211 0.4422689 0.29458508 -0.072361246 0.01820211 -0.03740122 0.38442868 0.021900428 -0.41450304 -0.019805158 0.35182968 -0.10098912 -0.37377483 0.3161069 0.23841305 -0.14972205 0.32341716 0.17509718 -0.10919976 0.08867309 -0.10006977 -0.33142513 0.003530968 -0.0969009 0.06655539 -0.19778296 -0.122539274 0.29963535 -0.15739124 0.64720005 0.016125783 0.14959884 0.13916479 -0.023200734 0.022949 0.2562819 -0.12921743 0.068433516 -0.066023014 -0.12088073 0.0038551358 -0.07739918 0.0100487275 -0.040155172 0.07004975 -0.12293796 -0.040452115 0.12784609 0.28709704 0.30991846 -0.22448877 -0.08456614 0.5438277 0.055635728 0.23292133 0.114750765 -0.33285502 -0.024759462 -0.3312445 0.018631365 -0.08767872 0.06320564 -0.19563672 -0.06860234 -0.19762819
CONJ 0.16250654 -0.18037456 0.1808693 -0.5056805 -0.11637082 0.001944619 -0.085732095 0.07149384 0.12933344 -0.016316699 -0.06738031 0.0140414 0.16497971 -0.02833989 -0.20524664 -0.15387988 0.010077047 -0.055487458 -0.061689235 -0.00028154076 0.13127474 -0.024147468 0.0060833474 0.117555186 0.04321505 0.06445407 0.04126964 -0.04920422 0.008892963 -0.03754191 -0.0073669595 0.009998784 0.08506571 -0.084255606 0.2077672 -0.18691143 -0.095033556 0.050500706 0.00241383 -0.031920433 -0.03943041 -0.0033004344 -0.07992092 0.0038869933 0.065263115 0.035028532 -0.15206459 -0.1538385 -0.039152313 -0.06248772 0.13124803 0.043638002 0.104472496 -0.051142443 0.071875945 -0.1903648 -0.24161659 -0.026499122 0.19734357 0.24674164 -0.038138103 -0.09608841 0.048876885 0.06058966 -0.2221459 0.15912963 0.043603178 0.060825363 0.3173981 -0.019156486 0.12901503 -0.029618924 0.00055035745 0.026230149 -0.08424699 0.15397538 0.022362405 0.0031142472 -0.058812503 0.005861323 -0.022854608 0.029118609 -0.00879682 0.027151287 0.18932143 0.117498755 -0.114749216 0.162713 0.19060855 0.23792276 -0.10142944 -0.03786918 -0.12668622 -0.030506402 0.026836587 0.14224742 -0.035237744 -0.0066421954 -0.0058967615 0.09255716 -0.060538363 0.02379574 -0.024160372 -0.0033638752 -0.009822924 -0.012658048 -0.009133179 -0.117979474 0.06259698 0.024753887 0.04978466 0.07990115 -0.013478588 -0.031395193 0.0837598 0.071868844 0.063965134 0.047337603 0.031702556 0.09708765 0.0332737 -0.11890533 0.0062327785 0.08883881 -0.025646714 0.01792518 0.017090928 0.059743598 0.027323848 0.010996532 0.02928275 -0.017322747 -0.024195118 -0.10782837 0.01261402 -0.15489766 0.05373222 -0.02292323 0.17741972 0.088829905 0.10967562 0.0064487653 -0.120542854 -0.057239983 -0.045760963 -0.0067957505 -0.12745406 -0.009934748 0.07594267 0.046780284 -0.2708678 -0.05909829 0.063734345 0.063268885 0.027678007 -0.20175542 -0.19934778 0.1394887 -0.06659623 0.030297982 0.07676358 0.045868907 0.062211562 0.06473539 0.04185343 -0.15155578 -0.0046359594 -0.08003375 -0.014457222 -0.025568074 0.03670247 -0.022166278 -0.10407128 0.068180114 0.08973444 -0.113495134 0.062088884 -0.0969144 -0.07501426 0.0420159 0.009984624 0.0052368944 0.025753297 0.022372987 0.109161206 -0.008966083 0.009731311 0.053007543 -0.013513541 -0.03045115 0.007089509 -0.022873266 -0.033394195 0.03747106 0.012827691 -0.0102113895 -0.060199987 0.00023287167 0.08122236 -0.020547321 -0.12458251 0.077745385 -0.1251424 0.071167104 0.039348025 0.15668882 0.087595575 0.08641458 0.08798556 0.16353755 -0.034767475 -0.07005351 -0.0759656 -0.013631477 -0.05382333 0.05056223 0.0046370444 0.021718498 0.016963942 0.020430313 0.026467545 -0.095127515 -0.080671735 0.03914195 -0.07143166 0.23353983 -0.0077773263 0.063184164 0.059573732 -0.058715664 0.05596391 0.15822051 0.11984492 0.091901354 0.16566162 -0.04410823 0.252658 0.16476046 -0.0714367 0.02144244 0.03026368 0.2538064 -0.0010244302 -0.31001595 0.03601682 0.22998136 -0.037950337 -0.18724608 0.21145739 0.15855671 -0.08627982 0.1871101 0.14706558 -0.16928706 0.1282608 -0.1902789 -0.34198895 -0.057395604 -0.060177386 0.073971584 -0.06312957 -0.038238183 -0.011616864 0.05787365 -0.18592429 -0.014164987 0.05838214 -0.004884174 0.008343718 -0.08994163 -0.02843423 -0.054491773 -0.06509817 -0.039040055 0.0043404405 0.014102105 -0.043434355 -0.04503892 -0.010642699 0.068554856 -0.07485268 -0.015946275 0.12864868 0.23119456 0.15267874 -0.08206796 0.016274957 0.2235289 0.013029321 0.08423426 0.026383253 -0.08481601 0.025282724 0.06268868 -0.060716316 -0.01769865 0.016376548 -0.058743395 -0.007773667 -0.06629869
PRON 0.40680876 -0.480925 0.47371948 -1.3497249 -0.34991747 0.063401885 -0.34541744 0.2555333 0.37810105 -0.03784671 -0.2028473 0.031859163 0.39154956 0.009878055 -0.4724741 -0.578236 0.02086566 -0.12563388 -0.14893043 -0.026804416 0.3979008 -0.05208896 0.013038498 0.2687666 0.12274771 0.07922287 0.062444545 -0.0625043 0.014729246 -0.0041191694 0.022387654 0.005112902 0.07325841 -0.084529676 0.27694848 -0.19993687 -0.09201293 0.050666664 0.012182092 -0.04357274 0.000768161 0.038654838 -0.061497167 -0.0120847365 0.11226814 0.018128132 -0.21561156 -0.16298614 -0.0050059785 -0.046868335 0.10424747 0.019352805 0.11654299 -0.015610099 0.071274064 -0.17488109 -0.25297135 -0.06337407 0.12575553 0.18757237 -0.021681063 -0.08967637 -0.040182266 0.059507493 -0.04277289 0.12744965 0.037025936 -0.10425956 0.18905306 0.00946827 0.011566031 0.06445616 0.12570149 -0.09532142 -0.021279065 0.102125674 -0.052949727 0.07220963 0.05399828 0.0017156913 0.06308266 0.08041701 -0.042937186 0.07874756 0.09294354 0.07179504 -0.096878044 0.006534579 0.078927726 0.11174607 0.023252226 0.061362192 0.015780447 0.060572207 0.012347183 -0.09333997 -0.06265292 -0.010267651 0.011022589 0.15325288 -0.02615692 -0.033007238 0.02999351 -0.122315235 -0.020730557 -0.06076783 0.101562954 0.03165751 0.108667284 0.03940483 0.094917744 0.024071129 -0.07096446 -0.07351651 -0.014566451 0.03397974 0.11588493 0.092763714 0.21725793 0.0057132225 0.015310747 -0.18784794 -0.054070953 0.06519319 -0.06409114 0.02806319 0.041037653 0.08445711 0.027320998 0.0073154434 0.07382277 -0.016672458 -0.04012474 -0.14398216 -0.036494885 -0.20208655 0.066655934 -0.020902125 0.19162358 0.15164234 0.19410695 0.019930286 -0.18428122 -0.05656786 -0.12244889 0.03634484 -0.2618307 0.0048262146 0.14222087 0.1152378 -0.5081683 -0.0800895 0.11187174 0.060252633 0.023977192 -0.30454627 -0.34030697 0.2701954 -0.09309592 0.0936824 0.094832875 0.055606663 0.08766877 0.07548666 0.090265684 -0.36568734 -0.02843112 -0.19234301 -0.0032942623 -0.037923377 0.0015717157 -0.055998646 0.06119053 0.03874404 0.03767412 -0.051123437 -0.025162708 -0.08362516 -0.0042884704 0.04753393 -0.089340046 0.06386622 0.22525908 0.123807386 0.14889236 0.07044958 -0.14625393 0.1729554 -0.11408596 -0.099361606 0.1410834 -0.19428158 -0.076993965 0.108297326 -0.036629945 0.18874283 -0.05200355 -0.018154223 0.3792033 0.124496944 -0.33276662 0.2198198 -0.24883777 0.20641366 0.08935378 0.24869213 0.16571316 0.19780298 0.15885042 0.2504795 -0.027282031 -0.09537408 -0.12097221 -0.012846017 -0.06082685 0.036031846 0.0012432423 0.042629458 0.034654465 -0.0053318026 0.05495267 -0.100738235 -0.10881665 0.038593844 -0.11406192 0.36539504 0.014248896 0.12699538 0.11650226 -0.10965459 0.11073036 0.3120786 0.23392811 0.119905025 0.28509533 -0.031644978 0.44640854 0.3071521 -0.12801225 -0.042045172 0.01377581 0.5487387 -0.0019002206 -0.6312028 0.011594686 0.47258043 -0.12530933 -0.4624831 0.48777807 0.44430125 -0.21968442 0.50087464 0.3169478 -0.2981978 0.26454547 -0.33397508 -0.678733 -0.093501456 -0.11503027 0.12671366 -0.15122016 -0.08221528 0.10691116 0.048951387 0.0046906555 0.021326926 0.14070104 0.052677236 0.034091737 -0.12319542 -0.027625049 -0.055317186 -0.03419584 -0.055846833 -0.110821 0.031807654 -0.0980151 -0.03059572 -0.05303713 0.15121788 -0.16219445 -0.019007714 0.26367748 0.43489435 0.40271428 -0.18952788 -0.019008033 0.64926434 0.07806731 0.32678503 0.19045192 -0.42011106 -0.021367969 -0.29877022 -0.034890585 -0.0879206 0.043989267 -0.16060132 -0.047056917 -0.21899624
SYM -0.574642 0.6125662 -0.668952 1.9370283 0.56883544 -0.059790146 0.59171784 -0.4059176 -0.7498364 0.15413353 0.3174825 -0.119239554 -0.60928065 -0.09173977 0.71340734 0.9826109 -0.016521368 0.2042611 0.24165818 -0.06470837 -0.71336156 0.10112373 -0.046072606 -0.48427555 0.14093104 0.12024253 -0.52523047 0.16401212 0.104850166 -0.120549105 0.18013163 0.7080613 0.12881628 0.017277097 -0.31933165 -0.09847296 -0.01618777 -0.097322404 -0.4901964 -0.06231745 -0.00800486 -0.28307799 -0.22129202 0.36924645 -0.06038498 -0.04711434 -0.092644356 -0.22283542 -0.0321196 -0.07839533 0.06804341 0.04292183 0.069369815 0.06447334 -0.09584757 0.16817124 0.35531035 0.14428982 0.18609282 -0.032736182 -0.04703602 0.15039526 0.11485982 -0.097388856 0.22704443 -0.36824137 -0.10257708 0.3065071 -0.44077665 0.0738185 -0.017769549 -0.17524637 -0.31764767 0.18908878 0.045459587 -0.1766741 0.24324067 -0.20427646 0.03795724 -0.10047085 -0.029326273 -0.20415547 0.033254858 -0.22576888 -0.091960646 -0.08842558 0.3739112 0.023096276 -0.15953933 -0.42435652 -0.07807397 -0.044940878 0.06420734 -0.17054264 0.010038035 0.18589742 0.23673674 -0.025195401 -0.012885994 -0.4502193 0.05518627 0.057386804 -0.021053756 0.17682658 0.073055364 0.16043593 0.009512477 -0.081778646 -0.21360739 -0.116320334 -0.16959588 -0.02974799 0.15868013 0.30825084 0.22741745 0.10422017 -0.37500504 -0.28471178 -0.606228 0.0021407742 -0.08411439 0.6544038 0.19779167 -0.24102803 0.08983748 -0.114198074 0.023463866 -0.38016456 -0.30485168 0.22332637 -0.0498295 0.08182956 -0.0002643123 -0.037185527 0.17868517 0.4141683 0.05132834 0.006668079 -0.07264112 -0.052828856 -0.10542806 0.022555923 0.17188711 0.16858137 -0.033005834 0.21124877 -0.03572812 -0.25476015 0.052568708 0.06091773 0.29001907 0.29830027 0.016421953 0.0017771473 -0.004503559 0.22363445 0.28081146 0.018925715 0.22356276 0.38389722 -0.007785503 0.05998909 -0.2343407 -0.14824565 -0.13558674 -0.008202927 -0.03997857 -0.027707739 0.15074374 0.11772706 -0.21448736 0.039866503 0.4857758 -0.24744652 -0.37425718 0.47517177 -0.13607265 0.2752197 0.25256586 -0.21920009 -0.07821822 -0.02018604 0.053247638 -0.050201487 -0.4457976 -0.011298634 -0.04264623 -0.24099042 0.033828463 0.080968864 -0.027469847 0.14916466 0.14653113 -0.107489444 -0.095262125 -0.05762607 0.19975479 0.006202704 -0.27602035 0.16099095 0.38405037 -0.19970559 0.36200896 -0.21308303 -0.1621685 -0.4542914 -0.19949934 -0.24361731 -0.4423948 -0.5533282 0.13434555 0.07561343 0.2705711 0.1461272 0.13362831 -0.32163364 -0.16730723 -0.22647509 -0.12678508 -0.009715456 -0.16213796 0.5808237 0.36048582 -0.09457152 0.32349804 -1.0933942 0.093352355 -0.36510068 -0.26452366 0.07261509 -0.21011646 -0.4605939 -0.27417758 -0.24496211 -0.35072234 0.008462803 -0.68728846 -0.44182506 0.1726955 -0.093432136 -0.0931697 -0.2097064 -0.0783878 0.4257501 -0.30336136 -0.58311385 0.016237853 0.07852858 0.00899204 0.21538296 0.05362522 0.25748605 0.03661684 0.043775406 0.07955185 0.15995066 0.31210852 0.0147506725 0.05172756 -0.103124365 -0.0074958215 -0.06502416 0.34700876 -0.38577968 0.5812348 0.07483846 -0.14758794 0.05158475 -0.06297707 0.2942669 0.12329241 0.06141488 0.16198547 -0.0025968258 -0.20503643 -0.036932033 -0.031063626 0.14836183 -0.15147372 -0.0019826144 -0.011134186 -0.032807633 -0.030018318 -0.036915965 0.075198 0.112445846 0.12952104 0.10288829 -0.09748685 0.17275886 0.29382044 -0.23950157 -0.29419956 -0.82276195 0.2139235 0.014902316 0.26022673 -0.23655422 -0.08429628 -0.2799774
AUX 0.3940969 -0.4806203 0.47188982 -1.3731315 -0.33798128 0.045042682 -0.32973248 0.2595409 0.32537383 -0.02475825 -0.18579619 0.011779675 0.3499909 -0.05068771 -0.41519257 -0.43282017 0.010763113 -0.123123504 -0.14219238 0.0056806775 0.35637274 -0.044361345 0.04885884 0.23942402 0.06582995 0.044997267 0.13431121 -0.06814967 -0.010527517 -0.007675957 -0.010340296 -0.08322375 -0.012808227 -0.03946611 0.24061036 -0.04942749 -0.023769367 0.066772304 0.15181233 0.005534247 0.007725569 0.10648594 0.064562224 -0.10993026 0.10554368 0.046766024 -0.08137645 0.016516898 0.035584792 -0.00043213926 0.05971062 -0.0033101991 0.069872364 -0.012912405 0.06774352 -0.13594516 -0.22556724 -0.07832025 0.013373737 0.077561475 -0.023055976 -0.09573865 -0.07034771 0.048522472 -0.052024927 0.15178834 0.04419305 -0.12388443 0.20819904 0.006859041 -0.0041401796 0.07731448 0.14576615 -0.10970219 -0.033890273 0.09099378 -0.07816774 0.08038278 0.031240214 0.010176542 0.06787239 0.09646026 -0.080151804 0.09718585 0.082500435 0.047643192 -0.10619455 0.032249607 0.08565198 0.14468518 0.03034949 0.064577326 -0.0016006463 0.059931967 0.031962547 -0.10683676 -0.08511322 -0.0006538432 0.021992322 0.17947845 -0.011812785 -0.05924135 0.012771869 -0.13151976 -0.04010249 -0.06115476 0.08756794 0.023229921 0.10994167 0.05461665 0.10932375 0.043095704 -0.09964179 -0.10481147 -0.04899041 0.018272435 0.12928362 0.1025275 0.247027 0.0054604164 0.036850672 -0.27444664 -0.05761489 0.07606685 -0.058108058 0.035681788 0.014249869 0.11004537 0.06381765 -0.044411503 0.066274226 -0.038891107 -0.03546969 -0.10368877 -0.060034897 -0.21028242 0.060937412 -0.018508706 0.17639422 0.16745372 0.20356055 0.014848958 -0.18863294 -0.06652093 -0.09553865 -0.011437752 -0.2118726 0.050767485 0.10659562 0.09333676 -0.45284113 -0.10814153 0.08391489 0.031088589 0.029309658 -0.24417438 -0.31322947 0.1854638 -0.09458588 -0.0057386747 0.08149492 0.03745191 0.077564016 0.076358475 0.08708279 -0.32824364 -0.03070959 -0.16366121 -0.026698079 -0.06729172 0.014940168 -0.065233245 0.01968978 0.08084707 0.087374456 -0.1080978 -0.067000866 -0.08671856 -0.003740311 0.105753966 -0.12111267 0.069798686 0.21790722 0.1615276 0.21317683 0.09710119 -0.14996849 0.23008013 -0.118790746 -0.09861827 0.18197545 -0.2376612 -0.08985516 0.12597533 -0.03155272 0.23562267 -0.08245868 -0.003746778 0.40374908 0.07946152 -0.4103997 0.23148456 -0.28938204 0.27917948 0.13112153 0.2995348 0.18220894 0.23344195 0.25261992 0.44680527 -0.12887512 -0.13708864 -0.2082052 -0.088504195 -0.086669974 0.13945428 0.09649662 0.16806205 0.088639006 -0.036525633 0.1231092 -0.32658204 -0.20100187 0.038232446 -0.23703004 0.75159174 -0.03765845 0.22821482 0.17787041 -0.1146567 0.16498539 0.48017803 0.36967802 0.20563586 0.395748 0.0012117547 0.6575921 0.46021223 -0.14589319 -0.009556616 0.016581612 0.65944946 0.008894435 -0.75167406 0.02963883 0.5631397 -0.12947914 -0.5471557 0.54752964 0.45872647 -0.25975856 0.5428209 0.34493345 -0.31933632 0.26709205 -0.36734334 -0.741051 -0.081598446 -0.15777479 0.11392701 -0.1169199 -0.078290045 0.063089445 0.09753857 0.033803474 0.013300908 0.13979952 0.0324602 0.005481988 -0.10350664 -0.0015889357 -0.06444096 -0.07781059 -0.057986923 -0.05430953 0.0062799165 -0.039669838 -0.03565366 -0.018715398 0.11492243 -0.15241657 0.007626972 0.1775447 0.32566786 0.24519096 -0.1836332 -0.088512704 0.49662656 0.10604016 0.23278753 0.08435367 -0.30819887 0.060251404 -0.0821579 -0.057442743 -0.06746766 -0.04940516 -0.06976678 -0.039306052 -0.11456865
SCONJ 0.2648699 -0.32335788 0.3241611 -0.8914655 -0.11685733 0.0016455443 -0.038748886 0.085968666 0.11121807 -0.012055163 -0.08084809 0.025616262 0.21035789 -0.1133939 -0.2837309 -0.107443765 -0.02200814 -0.06628793 -0.07182534 0.014661269 0.11502332 -0.018107625 0.0056796526 0.14797407 0.039526332 0.065966226 0.085990205 -0.076321796 0.022414247 -0.051699385 -0.016428513 -0.060901094 0.08309074 -0.10798693 0.28487375 -0.21477994 -0.086159654 0.06771549 0.046696533 -0.029316606 -0.03899436 0.03957834 -0.04731746 -0.032164283 0.09640622 0.047070477 -0.1866269 -0.13679872 -0.0056317085 -0.06280506 0.14566135 0.028212775 0.10274499 -0.03104246 0.07843455 -0.21855925 -0.2865004 -0.072955586 0.13765386 0.22317444 -0.035136018 -0.129153 -0.021125263 0.10066054 -0.16558044 0.20113483 0.058393396 -0.08508302 0.27556577 -0.023163965 0.059521984 0.04845427 0.11597885 -0.052855216 -0.07469003 0.16422078 -0.026273465 0.05114094 -0.013899851 0.017650064 0.014002605 0.08947895 -0.057499893 0.09681932 0.17506841 0.11471137 -0.15568802 0.09101496 0.15785122 0.23169303 -0.018032663 0.032687534 -0.052912615 0.036401287 0.0086861495 -0.0413223 -0.121551104 -0.00083863165 0.0056829173 0.22535601 -0.015193698 -0.036165908 0.007415808 -0.10442462 -0.05655832 -0.07556274 0.055287514 0.029351346 0.12508969 0.050099906 0.10697603 0.027933422 -0.10167267 -0.12973168 -0.10688364 -0.050897192 0.19218631 0.13439862 0.38183433 -0.057142425 0.017490475 -0.37920177 -0.16172077 0.06388488 -0.113567464 0.079587005 0.009678375 0.23099105 0.15846448 -0.08529586 0.04603357 -0.044565763 -0.035033405 -0.088943824 -0.070397034 -0.2423406 0.03391526 -0.0123089375 0.1255284 0.109251045 0.104680866 -0.001940872 -0.13643935 -0.076578245 -0.037508115 -0.051247545 -0.12536223 0.05106559 0.09774586 0.058538225 -0.40528065 -0.11031552 0.07663407 0.0874643 0.027728833 -0.30205414 -0.29505503 0.18337026 -0.12292143 -0.0079923095 0.07320191 0.016113425 0.1319843 0.118577205 0.08036712 -0.22013183 0.010792208 -0.120301165 -0.021814903 -0.057297982 0.078532614 -0.027475623 -0.17518897 0.12869935 0.16003272 -0.1938578 0.11627789 -0.18415639 -0.1309336 0.07297233 0.018531708 0.011555598 0.04415355 0.04970404 0.16594146 0.014318912 -0.035147656 0.10846178 -0.034473233 -0.07681654 0.0484767 -0.07133463 -0.05731107 0.07765382 0.016677935 0.006049029 -0.1055692 0.00050690456 0.18552157 -0.0064124702 -0.22111496 0.14246751 -0.21627955 0.11793034 0.05169337 0.26406085 0.13857906 0.14586155 0.14959925 0.24636409 -0.032552294 -0.110059634 -0.11895189 -0.00044631585 -0.08497693 0.06726029 0.0051735197 0.025669418 0.030060522 0.027431339 0.042695682 -0.1204872 -0.12502506 0.06556679 -0.13578945 0.4230658 -0.010246007 0.11717055 0.10175649 -0.10287581 0.08946006 0.26941866 0.16512872 0.11634607 0.22972253 -0.06333223 0.4115524 0.2712423 -0.11983225 0.016154012 0.04676819 0.4423 -0.0012534867 -0.5290337 0.050793868 0.39151177 -0.07340274 -0.33224502 0.3350136 0.27401924 -0.13772981 0.3153715 0.22592786 -0.25609362 0.21367897 -0.29371977 -0.56911933 -0.10206682 -0.09271871 0.11849346 -0.08487618 -0.051544897 -0.026841069 0.091123305 -0.16088758 -0.020171054 0.09977607 0.02217293 0.009000319 -0.11600141 -0.015750758 -0.09113022 -0.089188196 -0.0835459 -0.029823707 0.025159754 -0.079949014 -0.06989358 -0.03500809 0.13599944 -0.12192578 -0.019022925 0.21513514 0.37096453 0.27436784 -0.15453628 -0.0046930225 0.42732465 0.047371265 0.15168497 0.0426511 -0.16170892 0.06437405 0.12182246 -0.0992442 -0.035443127 -0.03545804 -0.026863815 -0.0041768355 -0.0590576
PART -0.0070978985 0.0095781535 -0.018085727 0.047983885 0.016927639 -0.01369691 0.032804128 -0.019297946 -0.049117554 0.012778341 0.015784442 -0.022571398 -0.021538615 -0.012790501 0.022353578 0.070901014 0.0032622367 0.006271687 0.01615278 -0.00048388998 -0.038682427 0.0010067477 0.001901209 -0.014977476 0.040217414 0.06089287 -0.04887266 -0.0050328667 0.00392646 -0.041098274 0.017221035 0.12641643 0.045818426 -0.026883813 0.056606818 -0.08360077 -0.05343971 0.015536189 -0.057804726 -0.019575475 -0.014054048 -0.021135619 -0.038458273 0.017224211 0.015131145 0.009402877 -0.048648167 -0.07039324 -0.031203382 -0.026023395 0.055246033 0.027099483 0.059301626 -0.03124838 0.02816446 -0.072840534 -0.08659861 0.009879408 0.12056284 0.115111895 -0.02393303 -0.032257795 0.053490605 0.00838873 -0.094168924 0.045949683 0.0085200025 0.06786507 0.13254417 0.00064582063 0.062890545 -0.034105215 -0.040584717 0.035085104 -0.027824806 0.045385253 0.016522111 -0.011998587 -0.033646036 -0.005439918 -0.009682251 -0.004180732 0.013502995 -0.011547373 0.049032673 0.030087674 -0.023582472 0.06478352 0.078078985 0.08260249 -0.07184643 -0.041114625 -0.07529549 -0.034770995 0.021692006 0.12667589 0.029250568 -0.007971596 -0.004767849 -0.035742596 -0.04790565 0.032186225 -0.024948912 0.039581075 0.018788585 0.019209675 -0.020837622 -0.10652199 -0.0038139336 0.0006766016 -0.0039930227 0.06343178 0.038809117 0.031913266 0.13134661 0.10368889 -0.039558873 -0.02070585 -0.18401586 0.14198607 0.03497586 0.10265835 0.12667744 0.072298855 0.0504711 -0.036665786 0.012443116 -0.09855211 -0.11186207 0.08896888 0.0133863995 0.007572216 -0.010069533 -0.085612185 0.06818892 -0.027702583 0.04474604 -0.016895665 0.1456634 0.041730836 0.097797744 0.01239508 -0.08314771 -0.02707044 -0.061713137 0.044386458 -0.12584554 -0.07134575 0.05814278 0.038072135 -0.12601525 0.0012533768 0.021734519 0.0007150871 0.010348836 -0.038187668 -0.059337433 0.051823404 0.004143826 0.04523819 0.058895446 0.059015274 -0.023072703 -0.006909557 0.0010061831 -0.12753151 -0.033624288 -0.059639275 -0.00947783 0.008562617 -0.040779535 -0.04581757 0.096526034 -0.021053327 -0.04526882 0.04716232 -0.0817932 0.055637673 0.060150336 0.018755177 -0.05909289 0.01602873 0.091928124 0.038290594 0.02630036 0.045315307 -0.068847276 0.060954448 -0.032570824 -0.029302705 0.065485306 -0.08217202 -0.024688475 0.020370934 -0.011947614 0.0973934 0.001747225 -0.009269409 0.09540203 0.031533357 -0.07789178 0.034551945 -0.037808202 0.058273856 0.04327491 0.036737688 0.029345991 0.043896604 0.05189201 0.09902863 -0.047813404 -0.009873926 -0.043026898 -0.046146885 -0.004360665 0.043523166 0.047640588 0.0771707 0.026012374 -0.015212056 0.040252324 -0.1434264 -0.057157982 -0.004692205 -0.08890861 0.24569383 -0.034946695 0.06523328 0.06668005 -0.030240692 0.0492261 0.14356063 0.11754083 0.072096676 0.113545485 0.016802803 0.15819734 0.10534496 -0.026355643 0.009864536 -0.012894706 0.16776824 -0.002183832 -0.16579588 -0.02705711 0.11093844 -0.042941425 -0.16187109 0.14805634 0.12997311 -0.05527619 0.1749821 0.09292345 -0.07409313 0.072798155 -0.057132352 -0.16041502 -0.012735497 -0.041538533 0.025351612 -0.06926594 -0.049237154 0.1161699 -0.074217275 0.254306 0.004438371 0.044294532 0.05414698 -0.01856034 0.022577273 0.11633373 -0.05765494 0.025332248 -0.03797405 -0.05298886 -0.001142091 -0.039573494 0.008087321 -0.03156892 0.04035763 -0.054239765 -0.019701393 0.05994201 0.1270727 0.12038906 -0.07869249 -0.017364724 0.2144699 0.013764919 0.10481096 0.065852374 -0.14920126 -0.026014488 -0.16129725 0.008623692 -0.03363452 0.034450974 -0.08275297 -0.0291812 -0.08248971
INTJ -0.06039916 0.05886804 -0.06809902 0.21205209 0.11039514 -0.026064558 0.1501972 -0.08777303 -0.16444753 0.031741437 0.06670361 -0.019686569 -0.09009701 -0.06237581 0.09361004 0.23971714 -0.014734913 0.027623927 0.038820624 0.003266344 -0.1340898 0.013828412 -0.0033874055 -0.05972196 0.018268723 0.049428727 -0.06699372 -0.00083258166 0.019744312 -0.05245405 0.017894315 0.118433446 0.05825279 -0.036864784 0.029060554 -0.095409505 -0.037157148 0.009053276 -0.084197074 -0.022791248 -0.028084321 -0.04786701 -0.06804535 0.063883655 0.0058760378 0.0142570175 -0.07184544 -0.09568953 -0.018935448 -0.03849263 0.07030947 0.021650005 0.04710877 -0.007994855 0.0078677125 -0.051633283 -0.03595828 0.008625182 0.095474966 0.08826023 -0.02511834 -0.022781922 0.03340779 0.022433411 -0.08458635 0.02477838 0.008456058 0.07446537 0.07437781 -0.0084961485 0.055997506 -0.038976207 -0.058028474 0.056462016 -0.046897568 0.05345502 0.054227833 -0.04039162 -0.0380918 -0.007992662 -0.031077677 -0.021889297 -0.0052388315 -0.020746335 0.09401106 0.048631098 0.00074307364 0.100964114 0.08152785 0.062482547 -0.0762416 -0.034758143 -0.06785152 -0.053816304 0.007994752 0.11558414 0.0120501015 -0.0016094998 -0.0051307264 -0.025228666 -0.012861067 0.025939109 -0.01929634 0.046627697 -0.0021838595 0.016207127 -0.0179673 -0.06971118 -0.009692107 -0.014692094 -0.010779954 0.035386395 0.024194162 0.03822763 0.07895535 0.041147802 -0.03140724 -0.026416631 -0.102284 0.06339863 0.012117955 0.060636576 0.05545676 0.017498998 0.0056610596 -0.014892447 0.008196827 -0.05029789 -0.045700625 0.05648291 0.0030690923 0.000652957 -0.014595079 -0.072681434 0.058962766 -0.00744542 0.039575018 -0.012369152 0.10355982 0.027153641 0.041105054 0.00044886998 -0.04009136 -0.006971058 -0.022724805 0.026165396 -0.07368866 -0.08988538 0.06295848 0.030058755 -0.08650024 0.024259107 0.031105189 0.04423375 0.018432735 -0.069520466 -0.041672505 0.06158695 5.487504e-05 0.07573072 0.050193485 0.045532092 -0.008344242 0.015271314 -0.011988276 -0.10842392 -0.014025665 -0.05658356 0.009829595 0.017019708 -0.026498698 -0.025781231 0.045356072 -0.0091868695 -0.028303243 0.03667085 -0.031342104 0.03230305 0.03505966 -0.0012020954 -0.03200641 -0.010193732 0.061012104 0.007505439 -0.015511196 0.026635319 -0.045635108 0.016766919 -0.0054649287 -0.017930059 0.030643044 -0.02150212 -0.012572367 0.017709933 -0.02430083 0.06619746 -0.0072945585 -0.008717682 0.05240673 0.03593159 -0.028668964 0.016157713 -0.008830731 0.029993821 0.008743545 0.02018546 0.02179688 0.0142095545 -0.011247495 0.051602647 -0.037156794 -0.033140436 -0.02489881 -0.020139765 -0.007958678 0.009836077 0.006774606 0.025117867 0.002422783 0.009811293 0.0056305793 -0.050622176 -0.013727692 0.0042096185 -0.038940396 0.09663194 -0.020759176 0.009986875 0.025967605 -0.027702473 0.015476284 0.06734172 0.052426122 0.04048042 0.061294153 -0.012124512 0.078812055 0.05006403 -0.014852915 0.013658934 -0.0019419278 0.084859565 -0.009971938 -0.07433978 -0.023992127 0.02662539 -0.017279891 -0.07895485 0.08324725 0.0784497 -0.019642256 0.10997195 0.05743313 -0.05673113 0.059899632 -0.039045896 -0.08094373 -0.016830146 -0.01729588 0.016297633 -0.020486446 -0.022319036 0.037407998 -0.03844085 0.06538821 -0.005362342 0.0047866823 0.016945107 -0.011318853 0.015971106 0.037279148 -0.024786633 0.0018071677 -0.015600943 -0.009239782 0.00032954742 -0.015847914 -0.0011737361 -0.015389078 0.018028645 -0.013278449 -0.0091160145 0.01993794 0.043041002 0.036673095 -0.014351561 0.014422805 0.04752636 -0.0078045917 0.030579658 0.023733951 -0.034564737 -0.017030297 -0.035114355 -0.0042459765 -0.003845569 0.01834653 -0.02655191 -0.005656762 -0.025257116
